//Numpy array shape [16, 58]
//Min -1.000000000000
//Max 0.875000000000
//Number of zeros 88

#ifndef W2_H_
#define W2_H_

#ifndef __SYNTHESIS__
weight2_t w2[928];
#else
weight2_t w2[928] = {0.125, 0.250, 0.000, -0.125, 0.000, 0.000, 0.000, 0.125, 0.375, -0.125, 0.000, -0.125, -0.250, 0.000, 0.000, 0.125, 0.125, -0.125, 0.000, 0.125, 0.125, -0.125, 0.250, 0.000, 0.000, 0.000, 0.000, -0.125, 0.000, -0.125, 0.000, -0.125, -0.375, 0.125, 0.000, -0.125, 0.125, 0.000, 0.125, 0.125, 0.125, 0.000, -0.250, 0.125, 0.125, 0.000, 0.000, 0.000, 0.000, -0.250, -0.125, 0.000, 0.000, 0.000, 0.000, 0.125, 0.000, -0.375, 0.250, 0.125, 0.125, 0.000, 0.000, 0.125, 0.000, -0.125, 0.125, 0.250, 0.125, 0.250, 0.125, 0.000, -0.125, -0.125, -0.125, 0.000, 0.000, 0.250, 0.125, 0.125, 0.125, -1.000, 0.375, -0.125, 0.125, 0.000, 0.125, 0.250, -0.125, 0.125, 0.250, 0.000, -0.125, 0.125, 0.375, -0.125, 0.000, -0.250, 0.125, 0.000, 0.000, 0.125, 0.125, 0.000, 0.125, -0.125, 0.000, -0.125, 0.000, -0.125, 0.000, -0.250, 0.000, 0.000, 0.000, -0.375, -0.750, 0.000, -0.125, 0.000, 0.125, -0.250, 0.000, -0.125, -0.375, -0.250, 0.000, 0.125, 0.375, 0.250, 0.000, 0.000, 0.250, 0.375, 0.000, 0.000, 0.125, 0.250, -0.250, 0.875, -0.500, 0.000, 0.000, -0.125, 0.125, -0.250, 0.000, -0.250, -0.375, 0.000, 0.125, 0.250, -0.125, 0.125, 0.000, 0.625, -0.250, 0.000, 0.000, 0.000, 0.000, -0.125, -0.375, 0.000, 0.125, 0.125, 0.000, 0.000, 0.000, -0.250, 0.125, 0.125, 0.000, -0.375, 0.125, -0.375, 0.125, 0.125, -0.125, 0.000, -0.125, 0.125, -0.250, -0.125, -0.250, -0.250, -0.250, -0.250, 0.000, 0.125, -0.375, 0.125, -0.125, -0.375, 0.125, 0.125, 0.125, -0.125, -0.250, 0.125, -0.250, 0.250, -0.125, 0.000, 0.125, -0.125, -0.250, -0.125, 0.125, 0.125, -0.500, 0.250, 0.000, -0.125, -0.125, 0.000, 0.500, 0.000, 0.250, 0.125, -0.125, 0.000, -0.250, 0.500, 0.125, 0.000, -0.375, -0.250, -0.125, -0.125, 0.125, 0.375, -0.375, -0.125, 0.125, -0.125, -0.250, 0.125, -0.125, 0.000, 0.000, 0.125, -0.125, -0.125, -0.250, -0.125, -0.250, 0.125, 0.500, 0.000, -0.125, 0.000, 0.000, -0.250, 0.375, -0.125, 0.250, 0.000, -0.125, -0.500, -0.125, 0.125, 0.125, 0.250, -0.125, 0.125, -0.125, 0.000, 0.125, -0.500, 0.125, 0.000, 0.250, 0.125, -0.250, 0.125, -0.250, 0.125, 0.000, -0.125, -0.250, -0.250, 0.000, 0.125, -0.250, 0.125, -0.125, -0.250, 0.125, -0.125, -0.250, 0.125, -0.250, -0.250, 0.000, -0.125, -0.125, 0.125, -0.125, -0.250, 0.250, 0.000, 0.125, -0.125, 0.375, 0.125, -0.125, 0.125, 0.000, 0.250, 0.125, -0.125, -0.250, -0.125, -0.375, 0.125, 0.250, 0.000, 0.125, -0.375, 0.125, -0.125, -0.250, 0.125, -0.125, 0.125, 0.000, 0.125, 0.125, -0.250, -0.125, 0.125, 0.125, 0.125, -0.250, 0.125, 0.000, -0.125, 0.125, 0.000, -0.250, 0.125, 0.000, -0.250, 0.000, 0.125, 0.125, 0.000, 0.000, 0.125, -0.125, 0.125, 0.125, -0.125, 0.125, 0.125, 0.375, -0.125, -0.125, -0.125, -0.250, 0.000, -0.125, 0.000, 0.125, -0.125, 0.125, -0.125, 0.000, 0.125, 0.125, -0.125, 0.125, -0.125, -0.125, 0.125, 0.000, 0.250, 0.125, -0.250, 0.375, 0.125, 0.000, 0.125, -0.500, 0.000, 0.000, 0.250, -0.250, 0.000, -0.250, 0.125, 0.125, 0.125, -0.375, 0.125, 0.000, -0.250, 0.000, 0.125, -0.250, 0.375, 0.125, 0.125, 0.000, -0.250, -0.625, -0.250, 0.250, 0.125, 0.000, 0.125, -0.125, 0.000, -0.125, 0.125, -0.125, 0.250, 0.000, 0.375, 0.000, 0.000, -0.375, 0.125, 0.000, -0.375, 0.125, 0.000, -0.375, 0.875, -0.125, 0.125, -0.250, 0.000, -0.125, 0.000, 0.000, 0.000, 0.000, 0.000, 0.000, 0.000, -0.250, -0.500, 0.125, 0.125, 0.000, -0.125, 0.500, 0.000, 0.000, 0.000, 0.000, 0.125, 0.000, 0.500, 0.125, 0.000, -0.250, 0.375, 0.000, -0.125, 0.000, 0.250, 0.500, -0.250, 0.000, -0.125, -0.250, 0.000, -0.125, 0.125, 0.000, -0.125, 0.000, 0.125, 0.375, -0.500, 0.000, 0.000, 0.500, -0.125, -0.125, 0.000, 0.000, -0.250, 0.000, -1.000, 0.000, -0.250, 0.000, 0.000, -0.125, 0.000, 0.000, 0.000, -0.125, 0.250, -0.125, -0.125, -0.125, 0.000, 0.000, -0.375, 0.125, 0.000, -0.125, 0.250, -0.250, 0.125, 0.125, 0.000, 0.000, 0.000, -0.250, 0.000, 0.125, -0.375, -0.125, -0.250, 0.000, 0.000, 0.125, 0.250, 0.000, -0.125, 0.000, 0.000, 0.000, -0.250, 0.125, 0.000, 0.000, 0.125, -0.125, -0.250, -0.250, -0.125, 0.000, -0.250, 0.000, 0.250, -0.125, 0.125, 0.125, 0.125, -0.250, -0.125, 0.125, -0.500, 0.000, -0.125, 0.000, 0.125, 0.000, 0.125, 0.000, -0.125, 0.250, 0.250, 0.000, -0.375, 0.000, 0.000, -0.250, 0.125, 0.000, -0.125, 0.250, -0.125, 0.125, -0.125, 0.000, 0.000, 0.125, -0.125, 0.000, 0.125, 0.000, 0.125, -0.125, 0.000, 0.000, -0.125, 0.000, 0.000, 0.125, -0.125, -0.375, 0.000, 0.000, 0.250, 0.125, 0.125, 0.000, 0.000, 0.000, -0.250, 0.000, 0.125, 0.125, -0.125, 0.000, -0.250, -0.125, 0.125, 0.000, -0.250, 0.000, 0.000, 0.000, -0.125, 0.000, 0.250, -0.125, 0.000, -0.125, 0.250, -0.125, -0.375, 0.000, 0.000, -0.125, 0.125, 0.000, -0.125, 0.000, 0.000, 0.125, 0.375, 0.125, 0.000, 0.000, 0.000, 0.000, -0.125, 0.125, 0.375, -0.375, 0.000, 0.000, 0.125, 0.125, 0.000, -0.125, -0.125, 0.125, 0.000, 0.000, 0.000, 0.000, -0.125, -0.375, -0.125, 0.000, 0.125, -0.125, 0.000, 0.000, 0.000, 0.125, -0.375, -0.375, 0.000, 0.000, -0.375, 0.000, 0.125, 0.125, 0.000, 0.000, 0.125, 0.125, 0.000, 0.250, -0.375, 0.000, -0.500, 0.000, 0.000, 0.000, 0.125, 0.000, -0.125, -0.125, 0.000, -0.125, 0.125, -0.125, 0.000, 0.000, 0.000, 0.000, -0.125, 0.125, -0.125, 0.250, 0.125, 0.125, -0.125, 0.125, 0.125, 0.000, -0.125, 0.000, 0.000, 0.000, 0.000, 0.125, -0.250, -0.375, 0.000, -0.250, -0.125, 0.000, 0.000, 0.000, 0.125, -0.250, -0.500, 0.125, 0.125, 0.000, 0.000, 0.000, 0.250, 0.000, 0.125, 0.250, -0.250, 0.000, 0.000, 0.000, 0.000, 0.000, -0.625, 0.000, 0.000, 0.125, 0.000, 0.000, -0.125, 0.125, 0.000, 0.000, 0.125, 0.000, 0.000, 0.125, 0.125, 0.000, -0.125, 0.125, 0.000, -0.500, 0.000, 0.000, 0.000, -0.125, -0.125, 0.000, -0.125, -0.125, 0.125, -0.125, 0.000, 0.000, -0.375, -0.250, 0.000, -0.125, 0.250, 0.000, -0.250, 0.000, 0.000, -0.375, -0.125, 0.125, -0.125, 0.000, 0.125, 0.000, -0.250, 0.000, 0.000, -0.125, 0.000, 0.125, 0.125, -0.250, -0.375, 0.000, 0.500, -0.125, 0.000, 0.000, -0.125, 0.000, 0.125, 0.250, 0.000, 0.000, -0.125, -0.125, 0.000, 0.250, 0.000, 0.000, 0.125, 0.000, 0.125, -0.500, -0.250, 0.125, -0.125, 0.000, -0.125, 0.125, 0.125, -0.250, 0.125, 0.000, 0.000, -0.125, 0.250, 0.250, 0.000, 0.375, -0.125, 0.000, 0.125, -0.125, -0.125, -0.125, -0.250, 0.000, 0.125, 0.000, 0.000, 0.125, 0.250, 0.000, 0.000, 0.000, 0.000, 0.000, 0.000, -0.125, 0.250, 0.000, 0.000, 0.000, 0.000, -0.125, -0.125, 0.000, -0.125, 0.000, 0.000, -0.125, 0.250, -0.125, 0.000, 0.000, 0.000, 0.000, 0.000, 0.000, 0.125, -0.375, 0.000, 0.125, 0.000, -0.125, 0.000, 0.000, 0.125, 0.125, 0.000, -0.125, 0.000, -0.250, 0.125, 0.000, 0.000, 0.250, 0.000, 0.000, -0.125, 0.125, -0.125, 0.000, 0.250, -0.125, 0.000, -0.125, 0.000, -0.125, 0.125, 0.000, 0.000, -0.250, 0.000, 0.000, 0.125, 0.500, -0.125, 0.000, 0.250, 0.000, 0.000, 0.000, 0.000, 0.125, 0.000, -0.250, 0.125, 0.000, 0.125, -0.250, 0.000, 0.000, -0.125, 0.000, 0.000, 0.000, 0.000};
#endif

#endif
