//Numpy array shape [58, 3]
//Min -1.000000000000
//Max 0.875000000000
//Number of zeros 14

#ifndef W5_H_
#define W5_H_

#ifndef __SYNTHESIS__
weight5_t w5[174];
#else
weight5_t w5[174] = {-1.000, 0.875, -0.250, 0.375, 0.250, -0.500, -0.125, 0.375, -0.375, 0.125, 0.875, -0.750, 0.375, 0.500, -0.750, 0.125, 0.875, -0.875, -0.125, 0.875, -0.750, 0.250, 0.250, 0.250, 0.375, -0.875, 0.500, -0.500, 0.375, -0.375, -0.125, 0.250, -0.750, -0.125, 0.500, -0.500, -0.625, 0.250, 0.250, -0.125, -0.375, 0.375, 0.250, -0.500, 0.250, -0.125, -0.125, 0.000, 0.625, -0.375, 0.125, 0.125, -0.250, 0.250, 0.125, 0.375, -0.625, 0.500, 0.500, -0.875, 0.000, -0.250, -0.250, 0.000, 0.875, -1.000, 0.125, -0.750, 0.125, 0.250, -0.625, 0.500, -0.375, 0.750, 0.125, 0.125, 0.000, 0.000, 0.000, 0.750, -1.000, -0.375, 0.250, 0.000, 0.000, 0.625, -0.875, -0.375, 0.750, -0.500, -0.250, -0.125, 0.000, 0.375, 0.750, -1.000, 0.125, -0.500, 0.500, 0.125, 0.125, 0.250, 0.125, 0.500, -0.500, -0.250, 0.250, 0.500, -0.375, 0.875, -0.500, -0.500, 0.000, 0.125, -0.250, 0.000, 0.250, 0.125, -0.875, 0.625, 0.375, 0.625, -0.875, -0.250, 0.375, -0.125, 0.375, -0.500, 0.375, -0.125, -0.125, 0.125, 0.000, 0.875, -0.750, 0.125, -0.250, -0.250, 0.125, 0.750, -1.000, -0.250, -0.500, 0.375, 0.000, 0.375, -0.750, 0.125, -0.625, 0.250, 0.375, 0.750, -0.875, -0.125, -0.125, 0.125, -0.250, 0.750, 0.250, 0.375, -0.375, 0.375, 0.125, 0.125, -0.375, -0.125, 0.500, -0.875, -0.250, -0.250, -0.125, 0.000, -0.750, -0.375};
#endif

#endif
